digraph Tree {
node [shape=box] ;
0 [label="self report: happiness <= 4.5\nmse = 2.528\nsamples = 20\nvalue = 4.35"] ;
1 [label="self report: happiness <= 3.5\nmse = 1.312\nsamples = 18\nvalue = 4.722"] ;
0 -> 1 [labeldistance=2.5, labelangle=45, headlabel="True"] ;
2 [label="self report: apathy <= 2.5\nmse = 1.129\nsamples = 15\nvalue = 4.933"] ;
1 -> 2 ;
3 [label="mse = 1.188\nsamples = 8\nvalue = 5.25"] ;
2 -> 3 ;
4 [label="mse = 0.816\nsamples = 7\nvalue = 4.571"] ;
2 -> 4 ;
5 [label="self report: amusement <= 3.5\nmse = 0.889\nsamples = 3\nvalue = 3.667"] ;
1 -> 5 ;
6 [label="mse = 0.0\nsamples = 1\nvalue = 5.0"] ;
5 -> 6 ;
7 [label="mse = 0.0\nsamples = 2\nvalue = 3.0"] ;
5 -> 7 ;
8 [label="self report: apathy <= 2.0\nmse = 1.0\nsamples = 2\nvalue = 1.0"] ;
0 -> 8 [labeldistance=2.5, labelangle=-45, headlabel="False"] ;
9 [label="mse = 0.0\nsamples = 1\nvalue = 2.0"] ;
8 -> 9 ;
10 [label="mse = 0.0\nsamples = 1\nvalue = 0.0"] ;
8 -> 10 ;
}