digraph Tree {
node [shape=box] ;
0 [label="audio: sad ratio <= 11.147\nmse = 5.948\nsamples = 20\nvalue = 4.05"] ;
1 [label="audio: neutral ratio <= 1.056\nmse = 7.006\nsamples = 13\nvalue = 4.615"] ;
0 -> 1 [labeldistance=2.5, labelangle=45, headlabel="True"] ;
2 [label="audio: neutral ratio <= 0.065\nmse = 8.0\nsamples = 8\nvalue = 5.5"] ;
1 -> 2 ;
3 [label="mse = 0.667\nsamples = 3\nvalue = 3.0"] ;
2 -> 3 ;
4 [label="mse = 6.4\nsamples = 5\nvalue = 7.0"] ;
2 -> 4 ;
5 [label="audio: neutral ratio <= 1.716\nmse = 2.16\nsamples = 5\nvalue = 3.2"] ;
1 -> 5 ;
6 [label="mse = 0.0\nsamples = 2\nvalue = 2.0"] ;
5 -> 6 ;
7 [label="mse = 2.0\nsamples = 3\nvalue = 4.0"] ;
5 -> 7 ;
8 [label="audio: sad ratio <= 6041.539\nmse = 2.286\nsamples = 7\nvalue = 3.0"] ;
0 -> 8 [labeldistance=2.5, labelangle=-45, headlabel="False"] ;
9 [label="audio: sad ratio <= 73.707\nmse = 1.889\nsamples = 6\nvalue = 2.667"] ;
8 -> 9 ;
10 [label="mse = 1.6\nsamples = 5\nvalue = 3.0"] ;
9 -> 10 ;
11 [label="mse = 0.0\nsamples = 1\nvalue = 1.0"] ;
9 -> 11 ;
12 [label="mse = 0.0\nsamples = 1\nvalue = 5.0"] ;
8 -> 12 ;
}